<?xml version="1.0"?>
<opencv_storage>
<cascade>
  <stageType>BOOST</stageType>
  <featureType>HAAR</featureType>
  <height>24</height>
  <width>24</width>
  <stageParams>
    <boostType>GAB</boostType>
    <minHitRate>9.9500000476837158e-01</minHitRate>
    <maxFalseAlarm>5.0000000000000000e-01</maxFalseAlarm>
    <weightTrimRate>9.4999999999999996e-01</weightTrimRate>
    <maxDepth>1</maxDepth>
    <maxWeakCount>100</maxWeakCount></stageParams>
  <featureParams>
    <maxCatCount>0</maxCatCount>
    <featSize>1</featSize>
    <mode>BASIC</mode></featureParams>
  <stageNum>11</stageNum>
  <stages>
    <!-- stage 0 -->
    <_>
      <maxWeakCount>3</maxWeakCount>
      <stageThreshold>-7.8959655761718750e-01</stageThreshold>
      <weakClassifiers>
        <_>
          <internalNodes>
            0 -1 26 4.1034232825040817e-02</internalNodes>
          <leafValues>
            -7.7142858505249023e-01 8.6407768726348877e-01</leafValues></_>
        <_>
          <internalNodes>
            0 -1 22 -3.2600712031126022e-02</internalNodes>
          <leafValues>
            8.0662763118743896e-01 -7.7327466011047363e-01</leafValues></_>
        <_>
          <internalNodes>
            0 -1 9 -1.7567479982972145e-02</internalNodes>
          <leafValues>
            7.5510662794113159e-01 -6.7380952835083008e-01</leafValues></_></weakClassifiers></_>
    <!-- stage 1 -->
    <_>
      <maxWeakCount>3</maxWeakCount>
      <stageThreshold>-7.2665810585021973e-01</stageThreshold>
      <weakClassifiers>
        <_>
          <internalNodes>
            0 -1 44 1.4562293887138367e-02</internalNodes>
          <leafValues>
            -6.5405404567718506e-01 8.0645161867141724e-01</leafValues></_>
        <_>
          <internalNodes>
            0 -1 10 2.8049394488334656e-02</internalNodes>
          <leafValues>
            -6.4680576324462891e-01 7.0355802774429321e-01</leafValues></_>
        <_>
          <internalNodes>
            0 -1 36 4.3255027383565903e-02</internalNodes>
          <leafValues>
            -7.3378098011016846e-01 5.7420170307159424e-01</leafValues></_></weakClassifiers></_>
    <!-- stage 2 -->
    <_>
      <maxWeakCount>3</maxWeakCount>
      <stageThreshold>-9.6254307031631470e-01</stageThreshold>
      <weakClassifiers>
        <_>
          <internalNodes>
            0 -1 1 -8.2982003688812256e-02</internalNodes>
          <leafValues>
            5.7037037611007690e-01 -8.6013984680175781e-01</leafValues></_>
        <_>
          <internalNodes>
            0 -1 46 4.4746631756424904e-03</internalNodes>
          <leafValues>
            -7.1977674961090088e-01 6.7422276735305786e-01</leafValues></_>
        <_>
          <internalNodes>
            0 -1 7 -4.5103535056114197e-02</internalNodes>
          <leafValues>
            6.1737352609634399e-01 -7.4472081661224365e-01</leafValues></_></weakClassifiers></_>
    <!-- stage 3 -->
    <_>
      <maxWeakCount>5</maxWeakCount>
      <stageThreshold>-1.0595443248748779e+00</stageThreshold>
      <weakClassifiers>
        <_>
          <internalNodes>
            0 -1 29 -9.9935885518789291e-03</internalNodes>
          <leafValues>
            6.7346936464309692e-01 -6.2222224473953247e-01</leafValues></_>
        <_>
          <internalNodes>
            0 -1 11 -7.6563403010368347e-02</internalNodes>
          <leafValues>
            3.5816803574562073e-01 -7.4354439973831177e-01</leafValues></_>
        <_>
          <internalNodes>
            0 -1 32 7.9037696123123169e-02</internalNodes>
          <leafValues>
            -7.3008966445922852e-01 3.4809359908103943e-01</leafValues></_>
        <_>
          <internalNodes>
            0 -1 14 -4.3249670416116714e-03</internalNodes>
          <leafValues>
            7.9454672336578369e-01 -4.1640573740005493e-01</leafValues></_>
        <_>
          <internalNodes>
            0 -1 0 -1.1208168143639341e-04</internalNodes>
          <leafValues>
            -8.6767011880874634e-01 3.5100522637367249e-01</leafValues></_></weakClassifiers></_>
    <!-- stage 4 -->
    <_>
      <maxWeakCount>5</maxWeakCount>
      <stageThreshold>-9.9473291635513306e-01</stageThreshold>
      <weakClassifiers>
        <_>
          <internalNodes>
            0 -1 4 -1.1846020817756653e-02</internalNodes>
          <leafValues>
            6.2886595726013184e-01 -5.9116023778915405e-01</leafValues></_>
        <_>
          <internalNodes>
            0 -1 42 2.1504081785678864e-02</internalNodes>
          <leafValues>
            -5.9569770097732544e-01 5.0668728351593018e-01</leafValues></_>
        <_>
          <internalNodes>
            0 -1 31 2.7654565870761871e-02</internalNodes>
          <leafValues>
            -5.3576183319091797e-01 5.0489848852157593e-01</leafValues></_>
        <_>
          <internalNodes>
            0 -1 32 7.1150094270706177e-02</internalNodes>
          <leafValues>
            -7.6192182302474976e-01 3.8778612017631531e-01</leafValues></_>
        <_>
          <internalNodes>
            0 -1 3 -5.6191471230704337e-05</internalNodes>
          <leafValues>
            -6.2382358312606812e-01 3.8742369413375854e-01</leafValues></_></weakClassifiers></_>
    <!-- stage 5 -->
    <_>
      <maxWeakCount>6</maxWeakCount>
      <stageThreshold>-7.3452466726303101e-01</stageThreshold>
      <weakClassifiers>
        <_>
          <internalNodes>
            0 -1 21 1.1551614850759506e-02</internalNodes>
          <leafValues>
            -6.0215055942535400e-01 7.1739131212234497e-01</leafValues></_>
        <_>
          <internalNodes>
            0 -1 2 -9.5501504838466644e-02</internalNodes>
          <leafValues>
            4.7594842314720154e-01 -6.8072891235351563e-01</leafValues></_>
        <_>
          <internalNodes>
            0 -1 15 9.7912237048149109e-02</internalNodes>
          <leafValues>
            -4.2221468687057495e-01 7.6196485757827759e-01</leafValues></_>
        <_>
          <internalNodes>
            0 -1 48 -1.0969598406518344e-05</internalNodes>
          <leafValues>
            -8.8275432586669922e-01 3.1786742806434631e-01</leafValues></_>
        <_>
          <internalNodes>
            0 -1 23 8.3248291048221290e-05</internalNodes>
          <leafValues>
            2.8634151816368103e-01 -8.8602548837661743e-01</leafValues></_>
        <_>
          <internalNodes>
            0 -1 6 -8.7724504992365837e-03</internalNodes>
          <leafValues>
            4.1030490398406982e-01 -5.6803709268569946e-01</leafValues></_></weakClassifiers></_>
    <!-- stage 6 -->
    <_>
      <maxWeakCount>5</maxWeakCount>
      <stageThreshold>-9.9956655502319336e-01</stageThreshold>
      <weakClassifiers>
        <_>
          <internalNodes>
            0 -1 39 6.9956064224243164e-02</internalNodes>
          <leafValues>
            -7.1052628755569458e-01 4.9206349253654480e-01</leafValues></_>
        <_>
          <internalNodes>
            0 -1 17 -1.8100842833518982e-02</internalNodes>
          <leafValues>
            4.9172750115394592e-01 -6.0328632593154907e-01</leafValues></_>
        <_>
          <internalNodes>
            0 -1 45 -3.4096723538823426e-05</internalNodes>
          <leafValues>
            -9.6130770444869995e-01 2.3001164197921753e-01</leafValues></_>
        <_>
          <internalNodes>
            0 -1 27 -1.6961693763732910e-02</internalNodes>
          <leafValues>
            4.6832540631294250e-01 -5.3042042255401611e-01</leafValues></_>
        <_>
          <internalNodes>
            0 -1 16 -1.8258732557296753e-01</internalNodes>
          <leafValues>
            6.6243219375610352e-01 -3.8409096002578735e-01</leafValues></_></weakClassifiers></_>
    <!-- stage 7 -->
    <_>
      <maxWeakCount>8</maxWeakCount>
      <stageThreshold>-1.3772172927856445e+00</stageThreshold>
      <weakClassifiers>
        <_>
          <internalNodes>
            0 -1 43 -1.6224267892539501e-04</internalNodes>
          <leafValues>
            3.3774834871292114e-01 -7.6377952098846436e-01</leafValues></_>
        <_>
          <internalNodes>
            0 -1 37 2.6695668697357178e-02</internalNodes>
          <leafValues>
            -6.8580031394958496e-01 2.9422357678413391e-01</leafValues></_>
        <_>
          <internalNodes>
            0 -1 41 -2.3879119908087887e-05</internalNodes>
          <leafValues>
            -8.7697941064834595e-01 1.7054226994514465e-01</leafValues></_>
        <_>
          <internalNodes>
            0 -1 34 3.4457701258361340e-03</internalNodes>
          <leafValues>
            -5.0480526685714722e-01 4.2168805003166199e-01</leafValues></_>
        <_>
          <internalNodes>
            0 -1 8 -3.5820394754409790e-02</internalNodes>
          <leafValues>
            3.6555442214012146e-01 -5.7017552852630615e-01</leafValues></_>
        <_>
          <internalNodes>
            0 -1 47 3.1498926691710949e-03</internalNodes>
          <leafValues>
            -4.0372818708419800e-01 5.5523568391799927e-01</leafValues></_>
        <_>
          <internalNodes>
            0 -1 18 9.6791045507416129e-04</internalNodes>
          <leafValues>
            -3.1026029586791992e-01 7.9590982198715210e-01</leafValues></_>
        <_>
          <internalNodes>
            0 -1 40 1.8928551580756903e-03</internalNodes>
          <leafValues>
            -3.4187379479408264e-01 5.8587378263473511e-01</leafValues></_></weakClassifiers></_>
    <!-- stage 8 -->
    <_>
      <maxWeakCount>7</maxWeakCount>
      <stageThreshold>-8.9393496513366699e-01</stageThreshold>
      <weakClassifiers>
        <_>
          <internalNodes>
            0 -1 30 4.6806102618575096e-03</internalNodes>
          <leafValues>
            -6.5957444906234741e-01 3.4306567907333374e-01</leafValues></_>
        <_>
          <internalNodes>
            0 -1 12 -1.1673306114971638e-02</internalNodes>
          <leafValues>
            5.7555770874023438e-01 -5.3357148170471191e-01</leafValues></_>
        <_>
          <internalNodes>
            0 -1 20 6.3738005701452494e-04</internalNodes>
          <leafValues>
            2.9297676682472229e-01 -8.4716236591339111e-01</leafValues></_>
        <_>
          <internalNodes>
            0 -1 38 4.9892834795173258e-05</internalNodes>
          <leafValues>
            4.0383037924766541e-01 -6.1556649208068848e-01</leafValues></_>
        <_>
          <internalNodes>
            0 -1 24 -9.9666975438594818e-04</internalNodes>
          <leafValues>
            5.3656578063964844e-01 -4.6812549233436584e-01</leafValues></_>
        <_>
          <internalNodes>
            0 -1 35 1.0110775292559993e-05</internalNodes>
          <leafValues>
            -4.6666193008422852e-01 6.8186491727828979e-01</leafValues></_>
        <_>
          <internalNodes>
            0 -1 28 4.2858733650064096e-05</internalNodes>
          <leafValues>
            -5.2957820892333984e-01 5.8495789766311646e-01</leafValues></_></weakClassifiers></_>
    <!-- stage 9 -->
    <_>
      <maxWeakCount>3</maxWeakCount>
      <stageThreshold>-4.4935587048530579e-01</stageThreshold>
      <weakClassifiers>
        <_>
          <internalNodes>
            0 -1 25 -1.6803705692291260e-01</internalNodes>
          <leafValues>
            1. -6.9633507728576660e-01</leafValues></_>
        <_>
          <internalNodes>
            0 -1 5 -1.6609882004559040e-03</internalNodes>
          <leafValues>
            -4.0437859296798706e-01 1.</leafValues></_>
        <_>
          <internalNodes>
            0 -1 33 4.4592466205358505e-02</internalNodes>
          <leafValues>
            -7.5302082300186157e-01 6.6802382469177246e-01</leafValues></_></weakClassifiers></_>
    <!-- stage 10 -->
    <_>
      <maxWeakCount>2</maxWeakCount>
      <stageThreshold>2.4390242993831635e-02</stageThreshold>
      <weakClassifiers>
        <_>
          <internalNodes>
            0 -1 13 -1.0108117759227753e-01</internalNodes>
          <leafValues>
            -9.7560977935791016e-01 1.</leafValues></_>
        <_>
          <internalNodes>
            0 -1 19 1.0899191256612539e-03</internalNodes>
          <leafValues>
            1. -9.4152039289474487e-01</leafValues></_></weakClassifiers></_></stages>
  <features>
    <_>
      <rects>
        <_>
          0 0 1 6 -1.</_>
        <_>
          0 2 1 2 3.</_></rects>
      <tilted>0</tilted></_>
    <_>
      <rects>
        <_>
          0 0 12 12 -1.</_>
        <_>
          6 0 6 12 2.</_></rects>
      <tilted>0</tilted></_>
    <_>
      <rects>
        <_>
          0 0 12 14 -1.</_>
        <_>
          6 0 6 14 2.</_></rects>
      <tilted>0</tilted></_>
    <_>
      <rects>
        <_>
          0 5 1 4 -1.</_>
        <_>
          0 7 1 2 2.</_></rects>
      <tilted>0</tilted></_>
    <_>
      <rects>
        <_>
          0 5 2 14 -1.</_>
        <_>
          1 5 1 14 2.</_></rects>
      <tilted>0</tilted></_>
    <_>
      <rects>
        <_>
          0 6 20 2 -1.</_>
        <_>
          0 7 20 1 2.</_></rects>
      <tilted>0</tilted></_>
    <_>
      <rects>
        <_>
          0 7 6 16 -1.</_>
        <_>
          2 7 2 16 3.</_></rects>
      <tilted>0</tilted></_>
    <_>
      <rects>
        <_>
          0 8 6 15 -1.</_>
        <_>
          3 8 3 15 2.</_></rects>
      <tilted>0</tilted></_>
    <_>
      <rects>
        <_>
          0 9 6 13 -1.</_>
        <_>
          3 9 3 13 2.</_></rects>
      <tilted>0</tilted></_>
    <_>
      <rects>
        <_>
          0 15 12 9 -1.</_>
        <_>
          0 18 12 3 3.</_></rects>
      <tilted>0</tilted></_>
    <_>
      <rects>
        <_>
          0 18 15 6 -1.</_>
        <_>
          0 21 15 3 2.</_></rects>
      <tilted>0</tilted></_>
    <_>
      <rects>
        <_>
          1 0 23 12 -1.</_>
        <_>
          1 6 23 6 2.</_></rects>
      <tilted>0</tilted></_>
    <_>
      <rects>
        <_>
          1 1 11 4 -1.</_>
        <_>
          1 3 11 2 2.</_></rects>
      <tilted>0</tilted></_>
    <_>
      <rects>
        <_>
          1 10 16 14 -1.</_>
        <_>
          1 17 16 7 2.</_></rects>
      <tilted>0</tilted></_>
    <_>
      <rects>
        <_>
          1 18 17 3 -1.</_>
        <_>
          1 19 17 1 3.</_></rects>
      <tilted>0</tilted></_>
    <_>
      <rects>
        <_>
          2 18 20 6 -1.</_>
        <_>
          2 21 20 3 2.</_></rects>
      <tilted>0</tilted></_>
    <_>
      <rects>
        <_>
          3 0 9 24 -1.</_>
        <_>
          3 8 9 8 3.</_></rects>
      <tilted>0</tilted></_>
    <_>
      <rects>
        <_>
          3 0 13 4 -1.</_>
        <_>
          3 2 13 2 2.</_></rects>
      <tilted>0</tilted></_>
    <_>
      <rects>
        <_>
          3 17 6 2 -1.</_>
        <_>
          3 17 3 1 2.</_>
        <_>
          6 18 3 1 2.</_></rects>
      <tilted>0</tilted></_>
    <_>
      <rects>
        <_>
          4 9 3 3 -1.</_>
        <_>
          4 10 3 1 3.</_></rects>
      <tilted>0</tilted></_>
    <_>
      <rects>
        <_>
          4 13 2 11 -1.</_>
        <_>
          5 13 1 11 2.</_></rects>
      <tilted>0</tilted></_>
    <_>
      <rects>
        <_>
          4 22 19 2 -1.</_>
        <_>
          4 23 19 1 2.</_></rects>
      <tilted>0</tilted></_>
    <_>
      <rects>
        <_>
          5 0 17 6 -1.</_>
        <_>
          5 3 17 3 2.</_></rects>
      <tilted>0</tilted></_>
    <_>
      <rects>
        <_>
          5 23 2 1 -1.</_>
        <_>
          6 23 1 1 2.</_></rects>
      <tilted>0</tilted></_>
    <_>
      <rects>
        <_>
          6 1 2 11 -1.</_>
        <_>
          7 1 1 11 2.</_></rects>
      <tilted>0</tilted></_>
    <_>
      <rects>
        <_>
          6 1 18 23 -1.</_>
        <_>
          12 1 6 23 3.</_></rects>
      <tilted>0</tilted></_>
    <_>
      <rects>
        <_>
          6 18 18 6 -1.</_>
        <_>
          6 21 18 3 2.</_></rects>
      <tilted>0</tilted></_>
    <_>
      <rects>
        <_>
          7 0 12 6 -1.</_>
        <_>
          11 0 4 6 3.</_></rects>
      <tilted>0</tilted></_>
    <_>
      <rects>
        <_>
          7 17 4 4 -1.</_>
        <_>
          9 17 2 4 2.</_></rects>
      <tilted>0</tilted></_>
    <_>
      <rects>
        <_>
          8 0 12 2 -1.</_>
        <_>
          8 1 12 1 2.</_></rects>
      <tilted>0</tilted></_>
    <_>
      <rects>
        <_>
          8 22 14 2 -1.</_>
        <_>
          8 23 14 1 2.</_></rects>
      <tilted>0</tilted></_>
    <_>
      <rects>
        <_>
          9 18 11 6 -1.</_>
        <_>
          9 21 11 3 2.</_></rects>
      <tilted>0</tilted></_>
    <_>
      <rects>
        <_>
          10 0 14 16 -1.</_>
        <_>
          17 0 7 16 2.</_></rects>
      <tilted>0</tilted></_>
    <_>
      <rects>
        <_>
          14 0 10 17 -1.</_>
        <_>
          19 0 5 17 2.</_></rects>
      <tilted>0</tilted></_>
    <_>
      <rects>
        <_>
          14 8 4 16 -1.</_>
        <_>
          16 8 2 16 2.</_></rects>
      <tilted>0</tilted></_>
    <_>
      <rects>
        <_>
          15 13 6 2 -1.</_>
        <_>
          15 13 3 1 2.</_>
        <_>
          18 14 3 1 2.</_></rects>
      <tilted>0</tilted></_>
    <_>
      <rects>
        <_>
          16 5 8 12 -1.</_>
        <_>
          20 5 4 12 2.</_></rects>
      <tilted>0</tilted></_>
    <_>
      <rects>
        <_>
          16 13 8 11 -1.</_>
        <_>
          20 13 4 11 2.</_></rects>
      <tilted>0</tilted></_>
    <_>
      <rects>
        <_>
          17 21 3 2 -1.</_>
        <_>
          18 21 1 2 3.</_></rects>
      <tilted>0</tilted></_>
    <_>
      <rects>
        <_>
          18 2 6 22 -1.</_>
        <_>
          21 2 3 22 2.</_></rects>
      <tilted>0</tilted></_>
    <_>
      <rects>
        <_>
          18 19 6 2 -1.</_>
        <_>
          18 20 6 1 2.</_></rects>
      <tilted>0</tilted></_>
    <_>
      <rects>
        <_>
          19 0 2 1 -1.</_>
        <_>
          20 0 1 1 2.</_></rects>
      <tilted>0</tilted></_>
    <_>
      <rects>
        <_>
          20 3 4 11 -1.</_>
        <_>
          22 3 2 11 2.</_></rects>
      <tilted>0</tilted></_>
    <_>
      <rects>
        <_>
          21 11 3 13 -1.</_>
        <_>
          22 11 1 13 3.</_></rects>
      <tilted>0</tilted></_>
    <_>
      <rects>
        <_>
          22 0 2 22 -1.</_>
        <_>
          23 0 1 22 2.</_></rects>
      <tilted>0</tilted></_>
    <_>
      <rects>
        <_>
          22 1 2 3 -1.</_>
        <_>
          22 2 2 1 3.</_></rects>
      <tilted>0</tilted></_>
    <_>
      <rects>
        <_>
          22 11 2 9 -1.</_>
        <_>
          23 11 1 9 2.</_></rects>
      <tilted>0</tilted></_>
    <_>
      <rects>
        <_>
          22 12 2 4 -1.</_>
        <_>
          23 12 1 4 2.</_></rects>
      <tilted>0</tilted></_>
    <_>
      <rects>
        <_>
          23 0 1 6 -1.</_>
        <_>
          23 2 1 2 3.</_></rects>
      <tilted>0</tilted></_></features></cascade>
</opencv_storage>
